{
  "coreLayer": {
    "W": [
      0.1655391635813945,
      0.15433143672378266,
      0.08684785240748623,
      0.555649753457707,
      0.4654071133407752,
      0.1872190846665027,
      -0.08114078395910851,
      0.5879674053382287,
      0.40226468510525065,
      0.4530480417132835,
      0.24454255406851635,
      0.4044334322122394,
      0.07366632370877421,
      -0.015361831416728207,
      0.06826008764944934,
      0.30379369851938187,
      0.07058352348281532,
      0.30339592684640454,
      0.4752093536947964,
      0.038472093675978106,
      -0.06477873133903148,
      0.4511577791998907,
      0.2290665844005412,
      0.08549431630028663,
      0.20212404993792404,
      0.10996688672953404,
      0.1888613423844637,
      -0.035737151543419894,
      0.6063465490767561,
      0.3390778987719269,
      0.5394410175404369,
      0.18069107360679237,
      0.2832305386027484,
      0.33165516735202294,
      0.043547034180556554,
      0.6309667847851724,
      0.6511557839727374,
      0.2342012767770362,
      0.3983038698842739,
      0.3346445962701534,
      0.5909847259896684,
      0.23354383832387451,
      0.5222500081382061,
      0.5219357420963129,
      0.22833617052167426,
      0.56904293793597,
      0.037768372884763195,
      0.39540803286248316,
      -0.09119991775799352,
      0.22091077241685547,
      0.4603454001028094,
      0.12842294056286133,
      0.609898551413987,
      0.49727854273308136,
      0.12078641740973661,
      0.07847283185442287,
      0.08889345518714595,
      0.37992834945874304,
      0.45774864484199246,
      0.44048838533100365,
      0.22996584172970502,
      0.07749128429735683,
      -0.19417638110550148,
      0.3236419689208058,
      0.10617991657390538,
      0.2759676017279647,
      0.17290233779375744,
      0.2759028057463536,
      0.08090163319896375,
      -0.13220033484915902,
      0.08284236325416358,
      0.20601628046891882,
      0.4661791189966585,
      0.32256963696396723,
      0.18712238553664873,
      0.1683383064883319,
      -0.0031334668466797616,
      0.4225881916437653,
      0.1987173942132143,
      0.47677790325783526,
      0.35709574712881653,
      0.5574432191326174,
      0.35277131459744676,
      0.19399919502025767,
      0.40808440780607985,
      0.25532288097463374,
      0.18941349498767296,
      0.4796079538773532,
      0.5285085429305518,
      0.13476879473980888,
      0.22791083047118302,
      0.5236148056656973,
      0.2028119264023468,
      0.48372487619427196,
      0.47730234814238826,
      0.2383407062511548,
      0.13389469986422678,
      -0.12675449578535689,
      0.5040553842430968,
      0.48965366751404266,
      0.21787127073121146,
      0.4295290018514524,
      0.3758916784264418,
      0.5459371921390644,
      -0.09987028809348586,
      0.21479172647827746,
      0.5106119797665122,
      0.33015287790079145,
      0.5696873663278089,
      0.1315457594340732,
      0.36323824424941653,
      -0.122286209181761,
      0.23601513800701646,
      0.4994171386488416,
      0.22811843476415608,
      0.20834452162914807,
      0.4675204712991413,
      0.27738896995763673,
      -0.13950802463250464,
      0.5656233367475124,
      0.1860552174897582,
      0.26827090012542854,
      0.1679048339608426,
      0.16528321021126555,
      0.07997674730612196,
      -0.08358635589341779,
      0.5250017686470575,
      0.2243292663133224,
      0.44458863549802663,
      0.12218947319510717,
      0.04551168848803004,
      0.18406201861314467,
      0.09145059521276525,
      0.4515417950451575,
      0.5931092141206677,
      0.30076899311833855,
      0.6159339114082473,
      0.19862835948908014,
      0.055885139500075974,
      0.04392747073431258
    ],
    "b": [
      0.3414782927086871,
      0.3456780006724389,
      0.3226713626832405,
      0.3672951368612657,
      0.305652941882676,
      0.2990315390566894,
      0.03392104655730426
    ],
    "inSize": 20,
    "outSize": 7,
    "actName": "sigmoid",
    "t": 180
  },
  "extLayer": {
    "W": [
      0.24560273623348114,
      0.397598131346642,
      0.13171910752911875,
      0.2584603196938594,
      0.12623342489043834,
      0.3753742805330867,
      0.26254210504575376,
      0.5669963728373985,
      0.33583493842172485,
      0.5114615449508738,
      0.6402648816132228,
      0.16319524591221424,
      0.5545583466278353,
      0.020680497159101745,
      0.4385890626688896,
      0.1534939900741816,
      0.6595351061913474,
      0.40149793479480284,
      0.5629271601380623,
      0.2889116598849612,
      0.09923787397653297,
      0.1878733332092725,
      0.1792311958583339,
      0.10349757020566759,
      0.23923457804867057,
      0.6643500943425226,
      0.2053687961238313,
      0.3481751023848297,
      0.5693206052022719,
      0.47217990367737395,
      0.19420506933494372,
      0.4954133325700926,
      0.5083740003134175,
      0.36149075741604575,
      0.25553327933459075,
      0.3150934365938153,
      0.6884561725596948,
      -0.01714764390869213,
      0.5846115731685126,
      0.009386087171293755,
      0.5917723383102523,
      0.21054321743863466,
      0.2045451395354875,
      0.6953269124029325,
      0.5094361384412588,
      0.019890676187342422,
      0.6574330215186294,
      0.44868740842403826,
      0.3407736854198728,
      0.14458485202114102,
      0.3738879429516368,
      0.6149387829055049,
      0.5115230489986232,
      0.6293976177244364,
      0.473167031054364,
      0.15297206355333173,
      0.2897324363960258,
      0.6268458912286168,
      0.1747099356816208,
      0.31281563044768573,
      0.22680909490418563,
      0.368242572410331,
      0.577676413912467,
      0.3592318349457111,
      0.36831089634459946,
      0.5650754651206075,
      0.5017211847551935,
      0.31277024706005274,
      0.6503633446435584,
      0.6564941487448858,
      0.18061759965658436,
      0.5297322551274511,
      0.5350702095985774,
      0.2903526954559145,
      0.3901701005017258,
      0.2740484391107304,
      0.20779855437278816,
      0.12131904249696655,
      0.5164147912292356,
      0.06630680164309401,
      0.18279231996868128,
      0.06781847657878054,
      0.23369580677907736,
      0.1913394853933875,
      -0.06975309601848785,
      0.07806239128436232,
      0.5366189158404524,
      0.13036478635509247,
      0.3703458507112691,
      -0.25283194152455707,
      0.06928343736320942
    ],
    "b": [
      0.24501037254819968,
      0.3143251651540297,
      0.21243380385606903,
      0.3564464218894935,
      0.356902134426121,
      0.34754137219960907,
      0.1606977556044967,
      0.3337411690207965,
      0.34459795724113246,
      0.37467038602222746,
      0.36567679602977304,
      0.019030190216120076,
      0.3387294815056797
    ],
    "inSize": 7,
    "outSize": 13,
    "actName": "sigmoid",
    "t": 180
  },
  "synthLayer": {
    "W": [
      -0.24487343012636864,
      -0.3143090407847358,
      -0.253299969297384,
      0.37752362437416026,
      -0.16369529615312112,
      0.17891488421206966,
      -0.0921318068735274,
      -0.2066452526703137,
      -0.12145375837185679,
      -0.15251586772635947,
      -0.2534899327957929,
      -0.34199767393364,
      -0.3268716226354405,
      -0.4580067902513606,
      -0.25250614290542184,
      -0.38652996792602373,
      -0.17452569151431063,
      -0.2527843489198499,
      -0.410309587860663,
      -0.41467552940062763,
      -0.23762602783310596,
      -0.3099489053614704,
      -0.4393091353976735,
      0.25389035003397314,
      -0.47036808773612704,
      0.21860469029668342,
      -0.2689355999413749,
      -0.46988661103100776,
      -0.5006952661754095,
      -0.17820899144074945,
      -0.3027212054486464,
      -0.0986491452548981,
      -0.3329615755548124,
      -0.4676397392504954,
      -0.27729048534808737,
      -0.19742270944754065,
      -0.5333689662161873,
      -0.5292629760428875,
      -0.2085500344743465,
      -0.4571902591564838,
      -0.3356587707068616,
      -0.23333031216844538,
      -0.17073656978599488,
      -0.054113406853405814,
      -0.23488236167545185,
      0.16607520768545367,
      -0.4863056352657805,
      -0.3612047619490962,
      -0.10151878712195955,
      -0.3557788653903746,
      -0.13115389879784026,
      -0.4333467553691359,
      -0.16596626386273472,
      -0.09325693842488757,
      -0.14670162179007643,
      -0.10820654680015232,
      -0.1318657544502632,
      -0.4367500480552038,
      -0.43683860441626876,
      -0.5333657980434986,
      -0.11366431098486685,
      -0.23598573693560376,
      -0.07220940099953357,
      0.29434723199571405,
      -0.12789544238477066,
      0.42904352418360686,
      -0.2497377246823827,
      -0.4133494922144409,
      -0.3588903390634677,
      -0.11999561073186692,
      -0.5458913252982727,
      -0.37213129856209665,
      -0.5138450665074008,
      -0.16430820004955038,
      -0.2820603690817563,
      -0.36625572842872967,
      -0.43003430292468575,
      -0.42347398024875965,
      -0.25412285473638335,
      -0.49802786259268783,
      -0.46548984845511693,
      -0.3932377111865858,
      -0.14718181779713266,
      0.2018325540705185,
      -0.538902544064041,
      0.09997350897121927,
      -0.4979136457884488,
      -0.15082400418979344,
      -0.14639625152939614,
      -0.20746870643748255,
      -0.258543159762216,
      -0.17405037866505707,
      -0.27413562017450377,
      -0.47351860286144243,
      -0.49632273599482607,
      -0.3974827717555565,
      -0.3910659059327432,
      -0.11653475197105993,
      -0.5270492216371715,
      -0.5456279879220591,
      -0.5473075475478649,
      -0.04932084123515627,
      -0.20330304019481918,
      0.17472956581654492,
      -0.5852289615424774,
      0.2734654363425019,
      -0.0693395380343102,
      -0.4313415665969967,
      -0.3811944248941657,
      -0.5204867545953054,
      -0.166678802048318,
      -0.4683031992469222,
      -0.24689844762212942,
      -0.3521112705061254,
      -0.449583202978697,
      -0.27851294776941826,
      -0.39739869864612526,
      -0.21488533510024685,
      -0.21569685573393493,
      -0.15382056718874618,
      -0.11389792215129665,
      -0.08652062041286011,
      -0.15187605666834608,
      0.23164573135601021,
      -0.19307940171405735,
      0.4270289288147651,
      -0.25934820735479347,
      -0.19019124518739788,
      -0.13229156202805814,
      -0.5186945951840833,
      -0.3099542015937422,
      -0.14528123420078357,
      -0.2623661712746576,
      -0.528709757694242,
      -0.09971130105996849,
      -0.19720728953427402,
      -0.28525192205103833,
      -0.3527765948260652,
      -0.19998649304056781,
      -0.09583985187622282,
      -0.49366472203720907,
      -0.054863987394259815,
      0.0007940197643225708,
      0.4230785515014316,
      -0.12801580538921778,
      0.05683741886096668,
      -0.1392432825297848,
      -0.3651822526756306,
      -0.41172685334821296,
      -0.49844534817466835,
      -0.21420599334130633,
      -0.4016780641664294,
      -0.1488430984276789,
      -0.35138121009245504,
      -0.5184398762552722,
      -0.4023859978887034,
      -0.43263765301447554,
      -0.3486088868065105,
      -0.4165449312100383,
      -0.17466256126842258,
      -0.1947112453624305,
      -0.3445720794322728,
      -0.3480502483618152,
      0.25731900962374843,
      -0.45936261021190716,
      0.39770460273700264,
      -0.5287364990921222,
      -0.5521877812516158,
      -0.12242756441804405,
      -0.17672352020353052,
      -0.2671900880969349,
      -0.2509562321489127,
      -0.5094229024421358,
      -0.09538086111782086,
      -0.37089234922763864,
      -0.5599453147581005,
      -0.13795079870623425,
      -0.5459608456754058,
      -0.3695262087523905,
      -0.14133518571784884,
      -0.5306497703069284,
      -0.07838661681503171,
      -0.07272905522386564,
      -0.05375836533008515,
      -0.18046784400197938,
      0.3849688010386209,
      -0.43830137765324,
      -0.5490520497856242,
      -0.29607401753759344,
      -0.5750479863247591,
      -0.19844245268386979,
      -0.49634801965592174,
      -0.43164057754062835,
      -0.22606486298237585,
      -0.5498360434644697,
      -0.47656954586035166,
      -0.27931301162315536,
      -0.3850402078323545,
      -0.21062441758401476,
      -0.302537078132093,
      -0.41661744449549953,
      -0.1637663369852713,
      -0.282551483410922,
      0.050865443556569766,
      -0.4541605983150399,
      0.010042690669853527,
      -0.5615797911522022,
      -0.10398490783525874,
      -0.27741734595021156,
      -0.36833466681313837,
      -0.5109581869210673,
      -0.32031255035377904,
      -0.5186622625154316,
      -0.492537078949906,
      -0.2954407915848473,
      -0.18031574330458186,
      -0.13116743277052825,
      -0.23544189246640945,
      -0.4942495642584887,
      -0.20391428777399237,
      -0.1873316133637504,
      -0.37867940500273944,
      -0.11121135818960086,
      0.12185181607296851,
      -0.19399468842221773,
      0.0409006907758153,
      -0.2791503516308771,
      -0.08674025291032772,
      -0.4662793626428778,
      -0.1319301061879072,
      -0.09219549317993035,
      -0.271399397026213,
      -0.4336893577272383,
      -0.059659180530459266,
      -0.11437346110929143,
      -0.21101317664410593,
      -0.18755349939101223,
      -0.19265108570599945,
      -0.14495467963913178,
      -0.28144283805093295,
      -0.1948532372692753,
      -0.08727235127500313,
      -0.325825835377689,
      0.3670708912735989,
      -0.21511104053689895,
      -0.03468182977461219,
      -0.3740537189652577,
      -0.35890594074431315,
      -0.5712848357621538,
      -0.312582849860595,
      -0.5431938919803185,
      -0.31670578992744725,
      -0.17955193193629304,
      -0.34770642891843095,
      -0.3666161419247255,
      -0.30103225319260274,
      -0.5092329666053871,
      -0.23701295128386302,
      -0.23428007617901958,
      -0.49098151750784186
    ],
    "b": [
      -0.29009748962987597,
      -0.1789143233357167,
      -0.22620072262616409,
      0.18467883280584865,
      -0.30491442109690164,
      0.20288922260604808,
      -0.2816847464975339,
      -0.2724950474375515,
      -0.3172904215138898,
      -0.29104088013136326,
      -0.32451479525339055,
      -0.2969428505120211,
      -0.27602567698075686,
      -0.28768963900782857,
      -0.26954142207165926,
      -0.2960112453046026,
      -0.2925334814062139,
      -0.27941209328831035,
      -0.2915671411173602,
      -0.27674125886123374
    ],
    "inSize": 13,
    "outSize": 20,
    "actName": "sigmoid",
    "t": 180
  },
  "masterLayer": {
    "W": [
      -0.12951199312086795,
      -0.097493942570809,
      -0.2841946115196697,
      -0.01605777919933112,
      0.09584375011585379,
      -0.1658287689648153,
      0.025670558715896324,
      0.05935231586083376,
      -0.11762277037585278,
      0.17565726236056164,
      0.13384695973292035,
      0.07178160752330064,
      -0.28355190909134387,
      -0.06665605867900225,
      -0.008975648986934575,
      -0.1489918327762362,
      0.26170628312095945,
      0.29106391873074483,
      0.010684682025862135,
      -0.20077418484821896
    ],
    "b": [
      0
    ],
    "inSize": 20,
    "outSize": 1,
    "actName": "sigmoid",
    "t": 0
  },
  "rankingLayer": {
    "W": [
      0.10079788336895257,
      -0.10844729038877308,
      -0.06881370184018593,
      -0.07940593809797969,
      0.20584760589086837,
      0.09162741748078351,
      0.20713384976487625,
      0.09968301804236132,
      -0.02786894922523829,
      0.04635102928534697,
      -0.07071760216540575,
      -0.07553920144332878,
      -0.030174151087398626,
      -0.21831722096019557,
      -0.18264464538770359,
      -0.1275736188357227,
      0.17620206167111724,
      -0.1872832546477805,
      0.1461295200286074,
      -0.02226903088724499,
      0.0961161301889475,
      -0.1943187851250072,
      -0.05965731887013024,
      -0.1046467921053337,
      0.11536303457443262,
      -0.010907798242939954,
      -0.07774129110145186,
      -0.10020668029778297,
      -0.004766552165937566,
      0.11634280897371248,
      0.0179324670278905,
      -0.1666955069670929,
      0.1522111602454418,
      -0.02698480784168724,
      0.056078057188406534,
      0.2185878009282921,
      -0.06792654342931674,
      0.04002347272391691,
      0.08788429647317443,
      0.20828998003733895,
      -0.1731299503706443,
      -0.03441911495378676,
      -0.10316417594157666,
      0.21634020088415315,
      -0.06306646674098006,
      0.21689366137707503,
      0.08413724029468495,
      0.1539352754295835,
      -0.1655369367641068,
      0.06751467555719137,
      0.08226775133354257,
      0.10168630855187465,
      -0.19725119799868965,
      0.08577023652793125,
      0.032062761356365876,
      -0.1704117365708898,
      -0.19346868321122762,
      0.17109781804495758,
      0.03353391790140971,
      0.019952500100367764,
      -0.05243127517650937,
      0.003506193070991523,
      0.15934210765934337,
      -0.20798129568482185,
      -0.09750790952111799,
      -0.15507202712518067,
      0.09229488471079386,
      0.06165135707290408,
      -0.013827300853672035,
      -0.08006182301663183,
      -0.16438578316803526,
      0.15448130198466312,
      0.05229441616380326,
      0.05297043738337854,
      -0.08455038757571633,
      0.06846539360520383,
      0.0351458652343839,
      0.12671924677323196,
      0.08444782710747817,
      -0.11931723353992325,
      0.22295151071819275,
      0.15332610564638408,
      -0.0038257056861991244,
      -0.09503976155073893,
      -0.1042784379254985,
      -0.1722540491382849,
      -0.2082943971214499,
      -0.20811314718986243,
      -0.003341304290838202,
      0.07405539280343257,
      -0.1413085080305219,
      -0.1686716130653808,
      -0.03941403393647746,
      -0.11331605876016514,
      -0.040763686353811855,
      0.06273560428409139,
      0.12418341094209688,
      -0.07298232534756724,
      0.10280657900389803,
      0.0802504831011995,
      0.008287969899195764,
      -0.1312695286217783,
      0.20610159887630047,
      0.1845839039498535,
      -0.11923391258682695,
      0.045803832396498496,
      0.12099435793425498,
      -0.06728077459955317,
      -0.06587105822453196,
      -0.20958354968298018,
      -0.07944449834401987,
      -0.029884945398626118,
      0.10259404292807865,
      -0.1262761773715413,
      0.06629173989022906,
      -0.07268092225786042,
      -0.025291725947281265,
      -0.10116965733853171,
      -0.07962669773988533,
      0.0887773345636029,
      -0.12295020293509953,
      -0.07071626274524219,
      0.09403305730979011,
      -0.05631424164099705,
      0.09608330439333465,
      -0.09218059812028224,
      0.1552549378848393,
      -0.08573852227469216,
      -0.11615959448565712,
      0.12923467209543138,
      -0.12482646180942195,
      -0.22263673524080196,
      -0.22159521690099218,
      0.1795797580966409,
      0.18940138482823018,
      -0.2053871498998271,
      0.014891721473329886,
      0.2209816867635218,
      0.03359125544190594,
      -0.12626138514600765,
      -0.14796037717811414,
      -0.2172079633061311,
      -0.07934813819888596,
      -0.12478176042079624,
      0.21109950973420064,
      -0.04623358430131538,
      -0.2172330466904141,
      -0.1248639165320742,
      0.1462952014687337,
      -0.04940096383845697,
      0.049786234147161594,
      0.04699120362317782,
      -0.14684921534041,
      0.1703404346183,
      0.17942426139824785,
      0.08711293683779103,
      0.1463601146797414,
      0.1765691552294565,
      -0.013365625681171214,
      -0.19534388336092195,
      0.13634695244675757,
      -0.07767131138896599,
      0.10162198513884035,
      0.16369887116897536,
      -0.06682041366678669,
      -0.10158109950884223,
      -0.019615281137352985,
      0.1592877663477153,
      -0.009162531689325596,
      -0.20553068356100201,
      0.12262108450094694,
      -0.16617664685931008,
      0.13813980958816455,
      0.10862383404139422,
      -0.14880090520936093,
      0.1660562801285872,
      0.10206453650674872,
      0.17524776241270476,
      0.03194252279608973,
      0.04046871767464072,
      -0.016431698485729694,
      0.14816316383649114,
      -0.009113697189277164,
      -0.2060067614527978,
      0.1067776114486172,
      -0.22059937562383036,
      0.0886271761583403,
      -0.22080718671337465,
      -0.1003162078367377,
      -0.16000783556832898,
      -0.0785243760351214,
      -0.031417191637282064,
      0.008580820771672392,
      -0.07209025737975218,
      0.17120605101062772,
      -0.20565873500789691,
      -0.06789851854052856,
      -0.07880411426834366,
      -0.18965263681924643,
      -0.10930247875546394,
      -0.19892272918860818,
      0.08185440849895254,
      0.14177778313861472,
      0.0808019193922843,
      0.008516060383806106,
      0.07916602482334767,
      0.06424319328641702,
      -0.14636327794538753,
      -0.038059453591168545,
      0.13011429267275942,
      -0.21290059092785404,
      -0.09591564428518358,
      -0.20215978655747327,
      -0.10976735878233798,
      0.0142356285785823,
      0.12687785127257506,
      -0.18989343487992316,
      0.14887876298464567,
      0.018332151873122416,
      -0.07649458239953355,
      0.12202742291668227,
      -0.059347105043532834,
      -0.03311705243883485,
      0.0019132986802523505,
      -0.15698017152487106,
      0.14408512786232983,
      -0.08951408676863883,
      0.14827096509613719,
      -0.03291894537017849,
      0.14749922772138274,
      -0.10712660321512874,
      -0.17654979896959114,
      -0.09175386558405184,
      -0.07454421703494907,
      0.04958969062104477,
      0.038217536965493536,
      -0.14014528425395179,
      0.15861733917053827,
      -0.13976907704618863,
      0.014646649227537318,
      -0.15743120610312986,
      0.06736836980197904,
      -0.12641906337730852,
      0.10121009675729468,
      0.0754440259998446,
      0.13674552432855488,
      -0.04174788977530757,
      0.0083746317026586,
      -0.1882000510298458,
      0.03225958070149427,
      -0.008164042587102117,
      0.04889023376536098,
      0.021319977222644133,
      -0.15007656136434347,
      -0.1335462998358303,
      0.12039190398171772,
      -0.1741894430319216,
      0.1448022376967372,
      -0.08248836543224322,
      -0.1812606589624526,
      0.02770762846704574,
      -0.03039360760314323,
      0.21694909282872454,
      -0.02542210677451785,
      0.2028891875675052,
      0.02166803066985227,
      0.20925475339851898,
      -0.13119536125852674,
      0.048774647886880615,
      0.07317756596468225,
      0.06990029379103979,
      -0.10392824019407322,
      0.1602560352087811,
      0.06151445419043023,
      -0.10896265625099727,
      -0.060324850738641383,
      0.00028861063070386106,
      -0.16649400970011838,
      -0.12755477557365133,
      0.08259581025161686,
      -0.03598806521376037,
      0.17404390512266413,
      -0.18066356642977754,
      0.04215644318001619,
      0.1344664589646015,
      -0.11300678858378942,
      0.1571304023800618,
      -0.0675975691857757,
      -0.14388216186246963,
      -0.05637877963401251,
      0.21528871254574092,
      -0.1167395263414546,
      -0.0707144657993474,
      -0.06677195527246793,
      -0.061712798425949414,
      -0.11783889335158629,
      0.0460859433559314,
      0.1606177717801359,
      -0.0632942045138333,
      0.06020915744796611,
      0.03591536763592358,
      -0.20000838186146525,
      0.09436947346130786,
      0.012866814180538044,
      -0.05188344894179851,
      -0.05099286073787453,
      0.2006394457266556,
      -0.09719788758094214,
      -0.005143181782379945,
      -0.05136264288561669,
      0.18170163297634467,
      0.004495270777640494,
      -0.08341857713372772,
      -0.05659579246437414,
      0.17321179890722493,
      0.02561232861104518,
      0.15035010395866252,
      -0.14890997689626062,
      -0.018367666478473484,
      0.1536921168600754,
      0.06992798614662538,
      0.05267740524436799,
      -0.06172264098473055,
      0.18684321382105884,
      0.18571316978297664,
      0.14329954147806948,
      -0.08087915607349042,
      -0.1889547576140635,
      0.029230435303881516,
      0.09858794907828489,
      0.21677272154256128,
      0.0844551323901635,
      0.17838998114033816,
      -0.07800837838278439,
      0.13778834046880717,
      0.17987647029056592,
      -0.09152530021565927,
      0.016389986838780266,
      -0.07779222223727075,
      -0.2155753496659844,
      0.07868448136361211,
      -0.008159466625508089,
      -0.1959256082150231,
      -0.04452352556369709,
      0.02197046235295384,
      0.011493773160335296,
      -0.11501479716742088,
      0.05877308979234529,
      -0.1722559445866487,
      0.0466665204020223,
      0.10366991722779788,
      0.08151948527958132,
      -0.05879364724578234,
      0.1369163564420678,
      -0.1925518288865412,
      0.07439507541269752,
      -0.1967105287830879,
      0.17857825782452327,
      -0.20358110514515831,
      0.04303374962431803,
      0.18346543501051965,
      -0.025237481369081258,
      -0.20302971539644774,
      -0.11403273304683477,
      -0.1489445936206564,
      0.11702402271201735,
      0.15242759391977223,
      0.22130270141554836,
      0.020177991749673715,
      -0.11615279118218319,
      -0.1541470228556089,
      0.16824018976895916,
      0.10412361570774989,
      -0.12462102598584508,
      -0.11825661847674315,
      -0.16708523186322013,
      0.2045653938864119,
      0.1262524537199618,
      -0.04242259050351234,
      0.13331369812277544,
      0.18418268314014508,
      -0.12246766178521848,
      -0.1813163603043369,
      -0.06909223948086111,
      -0.14245575869319194,
      -0.06862170720114809,
      -0.07552393861745153,
      -0.1748622847271565,
      0.05425626744778328,
      -0.03518342772991196,
      -0.01892110011138801,
      0.1639351264952709,
      -0.06694784537819035,
      0.19141121414298093,
      -0.21140188099565355,
      -0.21159827018320912,
      -0.052800519138385356,
      -0.1306400627078568,
      0.14392924713651178,
      0.014041981446303432
    ],
    "b": [
      0,
      0,
      0,
      0,
      0,
      0,
      0,
      0,
      0,
      0,
      0,
      0,
      0,
      0,
      0,
      0,
      0,
      0,
      0,
      0
    ],
    "inSize": 20,
    "outSize": 20,
    "actName": "softmax",
    "t": 0
  },
  "trainedSteps": 180,
  "totalInferences": 0,
  "savedAt": "2026-04-19T15:44:13.576Z"
}